float biases[128] = {0.001614, -0.014083, 0.017602, 0.034866, -0.013725, -0.006001, 0.012681, 0.024131, 0.019376, 0.002019, 0.001769, 0.018145, 0.000790, 0.022707, 0.006539, 0.018189, -0.003595, -0.011794, 0.010776, 0.027213, 0.007825, -0.000914, 0.017553, 0.008905, 0.030658, -0.005933, 0.012886, -0.021140, 0.010644, 0.014667, 0.003551, -0.006239, -0.005164, 0.033331, -0.001323, 0.013754, 0.003317, -0.002633, 0.034643, -0.008269, 0.012735, -0.006000, -0.013160, -0.014650, -0.010872, 0.005161, -0.008472, 0.032998, 0.006924, 0.024942, 0.013342, 0.008509, 0.028718, 0.029050, 0.028506, -0.005993, 0.003112, -0.012655, 0.006440, -0.006746, 0.007469, -0.006217, 0.032304, -0.007508, 0.010587, 0.020438, -0.013440, -0.008871, 0.002747, 0.024941, 0.014012, 0.024490, 0.006975, -0.005134, 0.021086, 0.001798, -0.003603, 0.021697, 0.032486, -0.002204, -0.004689, 0.005374, 0.024381, -0.008980, -0.000237, 0.032732, -0.000385, 0.023195, 0.026918, -0.008529, 0.007792, -0.000832, -0.012056, -0.004746, 0.019739, -0.010485, 0.005548, 0.011147, -0.014486, -0.005974, 0.013256, -0.023995, 0.002019, -0.028661, 0.001939, -0.006319, 0.022838, 0.001711, -0.006442, 0.004986, 0.002669, 0.011113, 0.009823, -0.008123, -0.011150, 0.036828, 0.001915, -0.022589, 0.009054, -0.019570, -0.006215, -0.000722, -0.005476, 0.003609, 0.007104, -0.006293, -0.011309, 0.026536};