float weights_2[1280] = {-0.147563, 0.014640, -0.093734, 0.102616, 0.030118, -0.102451, -0.101418, 0.043055, 0.148850, 0.183839, -0.157921, -0.170905, 0.122512, 0.072045, -0.211767, 0.194165, -0.076850, -0.199254, 0.222991, -0.202430, 0.004113, -0.152708, -0.141989, -0.247089, 0.045677, 0.181682, -0.040526, 0.024677, 0.111702, 0.028288, -0.019882, 0.019451, -0.112559, -0.018104, 0.173686, 0.011583, 0.116429, 0.099970, 0.028024, 0.031430, 0.061674, -0.175686, -0.030922, 0.162133, 0.151444, -0.047998, -0.172335, -0.151511, 0.167699, -0.089010, -0.164756, 0.143462, 0.060799, -0.020172, 0.002657, 0.015579, -0.184819, -0.103841, -0.029169, 0.155274, -0.090589, -0.073028, 0.193872, -0.059841, 0.040556, 0.212865, 0.227486, 0.050296, 0.121801, 0.127449, -0.208018, 0.173835, -0.059936, 0.122604, 0.195665, -0.199516, -0.089078, -0.089597, -0.115712, -0.043739, 0.024895, 0.183179, 0.164949, -0.236714, -0.107936, -0.119015, -0.146618, -0.200986, -0.121924, -0.193679, 0.042700, 0.192775, 0.079062, 0.075173, 0.024096, 0.207572, -0.125055, 0.082427, 0.022595, 0.201140, -0.236771, 0.034272, -0.237647, -0.146350, 0.103523, -0.079616, 0.159366, -0.114223, -0.118512, -0.060059, 0.227578, -0.136026, 0.219367, -0.106213, -0.118014, -0.217807, -0.044235, -0.176797, -0.168313, 0.186967, 0.142208, 0.000044, 0.147922, -0.051987, -0.144315, -0.109794, -0.091570, -0.184140, -0.163143, -0.233042, 0.050266, 0.158723, 0.002322, -0.050388, -0.019072, 0.056087, 0.133834, -0.260013, 0.034783, 0.193792, -0.011669, -0.000704, 0.068489, 0.152237, -0.012662, -0.043006, -0.238574, 0.158923, -0.184347, -0.081044, -0.091207, 0.079426, 0.147824, 0.009919, 0.078126, -0.151306, -0.038400, 0.075786, -0.187689, -0.074122, 0.098146, 0.153106, -0.062216, 0.189630, -0.066715, 0.080999, 0.225613, 0.156960, -0.139896, 0.202395, -0.012260, -0.174329, -0.133068, -0.182469, -0.057844, 0.191857, 0.148783, 0.187302, -0.155604, -0.115446, 0.106717, 0.004395, 0.238683, -0.135830, -0.152565, -0.077275, 0.049999, -0.042196, 0.058759, -0.046961, -0.087900, -0.047638, 0.181696, 0.243189, 0.118661, -0.232984, -0.066151, -0.008850, 0.045381, 0.176557, 0.098285, 0.181930, 0.178069, -0.226248, 0.046375, 0.056146, 0.219127, -0.144001, -0.045103, -0.109459, 0.211601, -0.102038, 0.162707, 0.253646, 0.066880, 0.204278, 0.105033, 0.125650, -0.009921, -0.205221, -0.018488, -0.253694, -0.220381, -0.234393, 0.031341, 0.113008, -0.149806, -0.153211, 0.113723, -0.235657, 0.056556, -0.158220, -0.008026, 0.138075, -0.029825, -0.133742, -0.093011, 0.046118, 0.036929, -0.027774, -0.217682, 0.145644, -0.169937, 0.181804, -0.063800, -0.093294, -0.096968, -0.079963, 0.094982, -0.144483, 0.106482, -0.205565, 0.076424, 0.139413, -0.205709, 0.197652, -0.077269, -0.101260, 0.195630, 0.167717, -0.037325, 0.085808, 0.064906, 0.121934, -0.291490, -0.000314, -0.072976, 0.024524, -0.209529, -0.024114, -0.144878, -0.036925, 0.165647, -0.128691, 0.053624, 0.152809, -0.147299, 0.063496, -0.081992, -0.222784, 0.073714, -0.041109, -0.158255, 0.092645, -0.141829, -0.164220, -0.223083, -0.051438, -0.169589, -0.171143, -0.133028, 0.123660, 0.058664, 0.162851, -0.173942, -0.073559, 0.182346, 0.195027, 0.057719, 0.054526, 0.099479, -0.188852, -0.201338, -0.289967, 0.004199, 0.168318, 0.225150, -0.088722, 0.151592, -0.031718, 0.044494, 0.162092, 0.169765, 0.203880, -0.186772, 0.021486, 0.082283, -0.041805, -0.267207, 0.049582, -0.150867, -0.062571, -0.239485, -0.125027, 0.172633, 0.103797, 0.158459, -0.058707, -0.178099, 0.091669, 0.049032, 0.238848, 0.208175, -0.112025, 0.182434, 0.068435, 0.136713, -0.051516, 0.190794, 0.134965, 0.075905, -0.027601, 0.005260, -0.132097, -0.148102, 0.059368, -0.078055, -0.104805, 0.015868, -0.012383, -0.017190, -0.104214, 0.088070, 0.168154, 0.172828, 0.041617, 0.059978, -0.168031, -0.102173, -0.011732, 0.044992, 0.072403, -0.142659, 0.027674, -0.105368, -0.275582, 0.155239, 0.144196, 0.081735, -0.165974, -0.164076, 0.101864, 0.176985, -0.057834, 0.043594, -0.083471, 0.010580, 0.211017, 0.129040, -0.054271, -0.026131, -0.000363, -0.046947, 0.213475, -0.149111, 0.137076, -0.187168, -0.209108, 0.187483, -0.027903, -0.100948, -0.078792, 0.224074, 0.187486, 0.045955, 0.202648, 0.071775, -0.148871, 0.047069, -0.118615, 0.066327, -0.140677, 0.003805, 0.041470, -0.152335, -0.049067, 0.035644, 0.217561, 0.034440, -0.179560, -0.037073, -0.055715, 0.206896, 0.035722, -0.178723, 0.008171, 0.044211, -0.111338, 0.206645, 0.091183, -0.004907, 0.159707, -0.101183, 0.033823, -0.165934, -0.077706, 0.107442, 0.108991, -0.083972, 0.068145, 0.209112, 0.040357, 0.183205, 0.164000, 0.056288, -0.090713, -0.122868, -0.118407, 0.048850, 0.193084, 0.070899, 0.038932, 0.036562, -0.075615, -0.232664, 0.007691, -0.180410, 0.169153, -0.160832, -0.219308, 0.061270, 0.126090, -0.208935, -0.168964, -0.000478, 0.173933, -0.091932, -0.123102, 0.124254, -0.045346, 0.160682, -0.041820, 0.080880, 0.199777, -0.172167, 0.069769, -0.076583, 0.087552, -0.127262, -0.062237, -0.077216, -0.070068, -0.213919, 0.178140, 0.198679, -0.163551, -0.077334, 0.118881, -0.046499, 0.153084, 0.140186, 0.014156, 0.008408, 0.025266, 0.068837, 0.055030, -0.012896, 0.119656, -0.014895, 0.169148, -0.239587, -0.154311, -0.061380, 0.198732, 0.126571, -0.203137, 0.161334, 0.007243, -0.175029, -0.138034, 0.111985, 0.177063, -0.181520, 0.148398, 0.039069, -0.078675, 0.123741, 0.102896, -0.045090, 0.195599, -0.143115, 0.208723, -0.199869, 0.218096, -0.126744, -0.030319, 0.133586, -0.136058, 0.103150, -0.210491, -0.134621, -0.242332, -0.104187, 0.028303, 0.141712, 0.144956, -0.028996, 0.186456, 0.174308, 0.025056, -0.193386, -0.217878, 0.054392, 0.015550, 0.091040, -0.072253, 0.197685, -0.213236, 0.064370, -0.101533, 0.129421, 0.191191, -0.129522, -0.196917, -0.085293, 0.228825, -0.000428, 0.035874, 0.123405, -0.220800, 0.058991, -0.007946, 0.173310, 0.002891, -0.087363, 0.194478, 0.095355, -0.200360, 0.077988, -0.127628, 0.160243, -0.077742, 0.112192, 0.142903, -0.141912, 0.099188, -0.175504, -0.201938, 0.099123, 0.061617, -0.143735, -0.084934, -0.000452, 0.145021, 0.110743, -0.146317, -0.199809, -0.023698, 0.188188, 0.115448, -0.090461, 0.062395, 0.116191, 0.133650, 0.075092, 0.087441, -0.165354, 0.130179, -0.149780, -0.125145, -0.160384, 0.058604, 0.123003, -0.089674, -0.147869, -0.101135, -0.026773, -0.047156, 0.193293, 0.190010, 0.137778, -0.003507, -0.262136, -0.032335, -0.024982, -0.059770, -0.032441, 0.099975, 0.245701, 0.098027, 0.102949, 0.185433, -0.050975, 0.146684, 0.095224, -0.183943, -0.179407, -0.205685, 0.062686, -0.188752, -0.079337, -0.231956, 0.201767, 0.097819, 0.078680, -0.186272, -0.146971, 0.014821, -0.256788, 0.073546, -0.095307, -0.091239, 0.154957, 0.074550, 0.116982, -0.095015, 0.129494, 0.196926, 0.187962, -0.210296, 0.195487, -0.109893, 0.135081, -0.086915, -0.017340, -0.165213, -0.127281, 0.049357, 0.151627, -0.040476, 0.113817, -0.154206, -0.181524, -0.146860, 0.186867, -0.061693, -0.110693, -0.015965, 0.124911, 0.013127, 0.034987, 0.000921, -0.160876, 0.241873, -0.215547, -0.006887, 0.040826, 0.032724, -0.096518, -0.069434, 0.100991, 0.156830, 0.099558, -0.033660, -0.136682, -0.119302, -0.032093, -0.157743, 0.218438, 0.120047, -0.218342, 0.194364, -0.219111, 0.160937, -0.054811, 0.146015, -0.173573, 0.299111, 0.176693, 0.150841, 0.200303, 0.152212, -0.163884, -0.045040, -0.126171, -0.062409, 0.008719, 0.086824, -0.209649, -0.094632, -0.000235, -0.089225, 0.295341, 0.084614, -0.118285, -0.233893, 0.043728, -0.038759, 0.056933, 0.101265, 0.106710, 0.156243, -0.232047, 0.130208, 0.222436, 0.029811, -0.080894, 0.195642, 0.176126, 0.064052, 0.072005, 0.161282, -0.134911, 0.128088, 0.071474, 0.144117, -0.051841, -0.112555, -0.078544, 0.064402, -0.118316, -0.001311, -0.027738, -0.068241, 0.178415, -0.155328, -0.126837, -0.212945, -0.067808, -0.042996, 0.118471, -0.140363, -0.125287, 0.131933, -0.223568, -0.195498, -0.023065, -0.211342, -0.144568, 0.177887, -0.012982, 0.133640, 0.163997, -0.042932, 0.019306, 0.006531, 0.095345, 0.111445, 0.198898, -0.209710, 0.175718, -0.051343, -0.113059, -0.184942, -0.178389, -0.067002, 0.133561, -0.274183, -0.036286, 0.205497, 0.025927, -0.179707, 0.138763, 0.031062, -0.060150, 0.049293, 0.100857, 0.009789, -0.120118, -0.274985, -0.100958, 0.090985, -0.141101, -0.121901, 0.126418, 0.126674, -0.113276, -0.188146, -0.017874, -0.110083, -0.155521, 0.095969, 0.188207, -0.192744, 0.129040, -0.049987, -0.007559, -0.246550, 0.033224, 0.010164, -0.005441, 0.136218, 0.055453, 0.042723, -0.064728, 0.070509, 0.013703, 0.107718, -0.141338, -0.013807, 0.084196, -0.177990, 0.198063, -0.236122, 0.036330, -0.126374, -0.146658, 0.146612, 0.066127, 0.070941, -0.173986, 0.080571, -0.098795, -0.163342, -0.220822, 0.131605, -0.223105, 0.112410, 0.112786, -0.080848, -0.133444, -0.031868, -0.104069, 0.210745, 0.180910, -0.218739, -0.123873, 0.142663, 0.025701, 0.098475, 0.069590, -0.184364, 0.115775, 0.192814, -0.017929, -0.156301, 0.131869, -0.203645, 0.186736, 0.214786, -0.226540, -0.156429, -0.144580, 0.130920, 0.175117, 0.060194, -0.003884, -0.068339, -0.114495, 0.191632, 0.108247, -0.133972, 0.108576, -0.128820, -0.172777, 0.065577, 0.125583, 0.131591, 0.202353, -0.019775, -0.147388, 0.069085, -0.080807, -0.119767, -0.094349, -0.252111, 0.112488, 0.155401, 0.142914, -0.186710, 0.128993, 0.082176, 0.153281, 0.068765, -0.030729, -0.100215, 0.016939, 0.219970, 0.138635, 0.066432, 0.083400, 0.115168, -0.239533, 0.191989, 0.218496, -0.241555, -0.240071, -0.037404, 0.071186, 0.187108, 0.027397, -0.013425, 0.237146, 0.018939, 0.155679, 0.158334, -0.021804, 0.130841, -0.120644, 0.171853, 0.139674, 0.082427, -0.170692, 0.058578, 0.198482, 0.198576, 0.000952, 0.150136, 0.141050, 0.106797, 0.218676, 0.191191, -0.229664, -0.166406, 0.187725, 0.160263, 0.071076, 0.046266, 0.110190, -0.085310, -0.194349, -0.005578, -0.194186, -0.081978, 0.111340, -0.115369, 0.113668, -0.105451, -0.155356, -0.166270, 0.170617, 0.055357, -0.078106, -0.062039, 0.053894, -0.043877, -0.215424, 0.127556, 0.201632, 0.172548, -0.055485, -0.039728, 0.228234, -0.123475, -0.101195, -0.033391, 0.044526, 0.182060, 0.065645, 0.168756, -0.054875, 0.131790, -0.096662, 0.054154, -0.188844, -0.203807, -0.001570, 0.068868, -0.120948, -0.121626, 0.148650, -0.088727, -0.051629, 0.196901, 0.066056, -0.225592, -0.169200, -0.250335, 0.210494, -0.178151, 0.095617, 0.014401, 0.120927, -0.188966, -0.243946, -0.174003, 0.103500, -0.151446, -0.204012, 0.205268, 0.191671, -0.053106, -0.156738, -0.075923, -0.154029, 0.035362, -0.013090, -0.171409, 0.006907, -0.144059, -0.063885, -0.168411, -0.014082, 0.133143, -0.126410, 0.071428, 0.235537, -0.089947, 0.093230, 0.162572, -0.236244, 0.096262, 0.076900, -0.193034, 0.070141, -0.003347, 0.051683, -0.216170, 0.021426, 0.197127, 0.207873, -0.043315, -0.038223, 0.086053, -0.084171, -0.006251, 0.072711, -0.169826, 0.052930, 0.129474, 0.172084, -0.161286, -0.037400, -0.201495, 0.134348, -0.142425, -0.208783, -0.046247, 0.195053, 0.032577, -0.026334, 0.236347, -0.071344, -0.141437, -0.090996, 0.158380, -0.141436, -0.125152, -0.251267, 0.117639, -0.031469, 0.178633, -0.184415, 0.008425, -0.018723, -0.053230, -0.133961, -0.285065, -0.137751, 0.001736, -0.160555, 0.049566, 0.087161, 0.005433, -0.180731, 0.081139, 0.010551, 0.132816, 0.220062, -0.113078, -0.019821, -0.027569, 0.170568, 0.019505, -0.204711, 0.071486, -0.217443, -0.270901, -0.122254, -0.035796, 0.069914, 0.155722, -0.061573, -0.038431, 0.185630, -0.127855, -0.221978, -0.082611, 0.190695, 0.121067, -0.010174, -0.010681, 0.082886, -0.167383, -0.093701, -0.235203, 0.014801, -0.182510, 0.114837, -0.056051, -0.000986, -0.208398, -0.130738, -0.187302, -0.190397, -0.151424, -0.145281, 0.041329, -0.156670, -0.017156, 0.184824, -0.041771, -0.093835, 0.155784, -0.115552, -0.018273, 0.170860, -0.016986, -0.165745, -0.038732, -0.099412, 0.009381, 0.173332, -0.143867, -0.039737, 0.142436, 0.014842, 0.184272, -0.039608, -0.032164, -0.066294, -0.020690, -0.128878, 0.053846, 0.164124, 0.032328, -0.032993, 0.111898, 0.048726, -0.062672, -0.035572, 0.124002, 0.021114, 0.173284, -0.019329, 0.033385, 0.078512, -0.120773, 0.187191, 0.203854, 0.183707, -0.203784, 0.195760, -0.033444, -0.002478, -0.172788, -0.015527, 0.011377, -0.196712, 0.216520, 0.210634, 0.188293, 0.001611, 0.057861, 0.159780, 0.142074, -0.139949, 0.023273, 0.121411, -0.163869, 0.093723, -0.064945, 0.196488, 0.004356, -0.197084, -0.116591, -0.014545, 0.022080, -0.063911, -0.204608, 0.152305, 0.124702, -0.065026, -0.002805, 0.005655, 0.032249, -0.183426, 0.120792, 0.091319, -0.169651, -0.082398, 0.182740, 0.134912, 0.055126, -0.019398, -0.139060, -0.033231, 0.046215, -0.111533, 0.069405, 0.068026, -0.132349, -0.166850, 0.128607, -0.015313, 0.152895, -0.263191, 0.018896, 0.002393, -0.051310, -0.156826, -0.011015, -0.032244, 0.076453, 0.128130, -0.116685, -0.113380, -0.072336, 0.031676, 0.169679, 0.106131, -0.220659, 0.084610, -0.262993, -0.083693, -0.026093, 0.043718, -0.200369, -0.257086, -0.051994, -0.264535, -0.141406, -0.174800, -0.017163, 0.102313, 0.099114, 0.002545, -0.115778, 0.050581, -0.169091, 0.248263, -0.023538, -0.113818, 0.014196, -0.221909, 0.151235, 0.168079, 0.109272, -0.230957, 0.030926, -0.116722, -0.010340, 0.136464, 0.185820, 0.089008, -0.065810, -0.097519, -0.119762, -0.055998, 0.134128, 0.171119, 0.201705, 0.064017, -0.169489, -0.224148, 0.096020, 0.190353, -0.018562, -0.088873, 0.174366, 0.207542, 0.191916, 0.171548, -0.205000, -0.188971, -0.058890, -0.041368, -0.123789, 0.156779, 0.127001};